100 25
ebi -0.108106 -0.174870 -0.171694 -0.075831 0.081003 -0.334875 -0.306570 0.544705 0.175153 0.218589 -0.013971 0.256343 -0.218459 0.100707 -0.341430 -0.109151 -0.086342 -0.404724 -0.176988 0.117742 0.016551 0.171622 0.551005 -0.397236 0.016235
toro -0.038638 -0.046496 0.270010 0.084252 0.338230 -0.437416 -0.247204 0.501387 0.139119 0.074035 -0.071118 0.155042 -0.294092 0.161699 -0.360919 0.119956 0.159337 -0.088850 -0.044114 0.190806 -0.030950 0.335510 0.366768 -0.130278 0.119741
maguro -0.004229 -0.093853 0.183690 0.325666 0.325996 -0.354402 -0.396349 0.525451 0.233352 0.312272 -0.044481 0.136868 -0.141714 -0.008417 -0.323696 0.006959 0.006827 -0.118815 0.070573 0.059394 0.059725 0.373106 0.376089 -0.245804 0.051200
anago -0.162599 -0.173329 0.045516 -0.089257 0.267558 -0.443205 -0.258403 0.479017 0.012059 0.071758 0.096938 0.272817 0.026928 0.153055 -0.242484 0.195312 -0.028642 -0.184991 -0.302940 0.194157 -0.119240 0.322762 0.409295 -0.195369 0.000429
amaebi -0.274343 -0.180809 0.012073 -0.028845 0.340905 -0.314746 -0.178648 0.418836 0.168597 0.078417 -0.016836 0.370623 -0.217156 -0.168765 -0.316240 0.100969 0.032022 -0.098822 0.011167 0.232565 -0.110119 0.290767 0.392143 -0.381749 -0.020305
ikura -0.090968 -0.096190 0.017677 -0.186266 0.324588 -0.524947 -0.274488 0.445211 -0.029282 0.061575 -0.041786 0.437517 -0.158474 0.072253 -0.125968 0.150793 -0.047190 0.034893 0.017571 0.323268 0.020262 0.460791 0.006979 -0.226113 0.049170
ika -0.127035 -0.202738 0.023584 -0.140070 0.268229 -0.388495 -0.407654 0.422295 -0.105647 -0.092105 -0.015501 0.385134 0.054507 0.182229 -0.183501 0.132016 -0.173089 0.018066 -0.118639 0.198392 -0.088127 0.411741 0.205733 -0.261778 0.156991
hotategai -0.043970 -0.234579 0.112682 0.191744 0.210520 -0.464638 -0.274649 0.400985 -0.067564 0.039767 -0.174325 0.258129 -0.157820 0.138105 -0.294910 -0.031691 -0.115073 -0.015502 -0.070878 0.074470 -0.054679 0.358083 0.293057 -0.400229 0.190851
tai -0.026244 -0.196228 0.086851 -0.075377 0.163796 -0.463376 -0.307063 0.403554 -0.152762 0.023296 -0.150548 0.283424 0.052859 0.221468 -0.324003 -0.041364 -0.174044 -0.150003 -0.158771 0.157358 0.012535 0.339274 0.360740 -0.224729 0.127918
chu_toro -0.002844 -0.291893 0.129396 -0.094308 0.171454 -0.296638 -0.227697 0.349627 -0.148736 -0.090758 -0.238406 0.400705 -0.141945 0.079718 -0.299132 0.104722 -0.052907 -0.121030 -0.024708 0.284309 0.057159 0.398218 0.434712 -0.209532 -0.064431
uni -0.047508 -0.263775 -0.020549 -0.052651 0.307534 -0.352971 -0.328830 0.478975 0.068081 0.088135 0.015328 0.394969 -0.015959 -0.122242 -0.120737 -0.138033 -0.092103 0.039091 0.075462 0.190437 0.062263 0.422883 0.255450 -0.329521 0.130379
tako 0.074972 -0.215437 0.239964 0.263762 0.258838 -0.508021 -0.243698 0.485510 0.120871 0.166244 -0.258420 0.266719 -0.041854 -0.093335 -0.276238 -0.110987 -0.126572 0.069588 0.157361 0.137510 0.126821 0.377030 0.356482 -0.101842 0.202928
samon -0.033444 -0.232703 0.044240 0.030318 0.177799 -0.288307 -0.313832 0.425033 -0.142402 0.090807 -0.052747 0.345176 -0.026166 0.238821 -0.238013 0.045493 -0.003409 -0.057490 -0.011128 0.122823 0.038097 0.493848 0.399936 -0.327506 -0.037494
tamago -0.038073 -0.017659 0.051982 0.007066 0.199428 -0.386475 -0.247128 0.432313 0.108719 0.189095 -0.123596 0.495234 -0.119685 -0.058860 -0.227590 0.144790 0.026878 0.052624 0.214206 0.313824 0.097738 0.494909 0.320139 -0.186119 -0.002962
hamachi -0.177752 -0.282046 0.123584 -0.070084 0.198742 -0.224195 -0.220480 0.449374 -0.191296 -0.128435 -0.090598 0.501963 -0.085473 0.005268 -0.177858 0.027588 0.026070 -0.183961 -0.100866 0.169134 0.075396 0.360155 0.278073 -0.369824 0.124910
hirame -0.027934 -0.248507 0.245623 -0.032028 0.332388 -0.313111 -0.235691 0.343093 -0.286698 -0.108000 -0.275339 0.430881 0.010344 0.101225 -0.324991 0.074947 -0.128759 -0.020606 0.020872 0.194295 0.089983 0.378979 0.246272 -0.266771 0.056953
kani 0.007917 -0.239188 0.234599 -0.034555 0.383589 -0.316947 -0.319698 0.440513 0.069027 0.096535 -0.083420 0.463040 0.018202 -0.173314 -0.162804 0.033764 -0.085194 0.086143 0.211521 0.103070 0.133217 0.424771 0.256936 -0.155488 0.062167
awabi -0.110528 -0.157047 0.024511 -0.077553 0.254727 -0.406250 -0.204619 0.514738 -0.074610 0.115535 -0.043961 0.341597 0.015954 0.113772 -0.333058 -0.044260 0.067994 -0.266718 -0.187709 0.109369 0.055606 0.238824 0.331889 -0.341587 0.130250
aji -0.245769 -0.262569 0.175716 -0.025701 0.183069 -0.206687 -0.251198 0.477791 -0.093006 -0.138571 -0.010776 0.369471 -0.116716 0.089174 -0.322466 0.181176 -0.010121 -0.164716 -0.095972 0.177232 0.033324 0.307590 0.350018 -0.363736 0.130282
tekka_maki 0.016673 -0.168296 0.149527 0.058872 0.120321 -0.341382 -0.349686 0.514871 0.030625 0.008365 0.030673 0.362996 -0.155456 0.149110 -0.247523 0.168643 0.062139 -0.223903 -0.034432 0.013955 -0.033670 0.330730 0.468864 -0.229171 0.068484
akagai -0.007574 0.065659 0.118850 -0.084019 0.521149 -0.404008 -0.289860 0.396054 -0.193429 0.220176 0.016119 0.310256 0.239906 0.033799 -0.408122 0.040686 -0.017658 -0.117264 -0.275591 0.118339 0.065190 0.356886 0.198789 -0.354004 0.054967
unagi -0.003409 -0.068982 0.234740 0.184999 0.265602 -0.330927 -0.245297 0.449787 0.119470 0.200625 -0.133278 0.384547 -0.138865 0.094863 -0.294535 0.190603 -0.057200 -0.209175 0.102537 0.179024 0.171674 0.352639 0.364895 -0.163905 0.044283
kanpachi -0.183476 -0.193480 0.209232 -0.170099 0.281119 -0.398603 -0.192762 0.495078 -0.056564 0.099695 -0.022725 0.377835 -0.030422 -0.097503 -0.291736 0.020249 0.056043 -0.062439 0.064060 0.286137 0.028480 0.349233 0.172364 -0.263320 0.016919
negi_toro -0.000136 -0.154776 -0.014835 0.075399 0.034834 -0.428446 -0.313054 0.553569 0.122381 0.049425 0.019714 0.348573 -0.058861 -0.021232 -0.269113 -0.050840 -0.017494 -0.059977 0.000398 0.105055 -0.090245 0.326146 0.370771 -0.396318 0.107026
saba -0.049720 -0.224232 0.095235 -0.112388 0.141750 -0.440126 -0.334376 0.494810 -0.104469 0.068755 0.013264 0.305509 -0.089822 0.158141 -0.255305 -0.019397 -0.055544 -0.169937 -0.181266 0.179567 -0.065160 0.276965 0.354393 -0.224005 0.074915
kazunoko -0.034208 -0.189576 0.096596 0.081658 0.198010 -0.377835 -0.209818 0.484504 0.035216 0.152046 -0.065199 0.426485 0.014710 -0.033632 -0.282665 -0.070241 -0.087005 -0.043324 0.036630 0.071982 0.111525 0.322352 0.444393 -0.276721 0.086525
katsuo 0.012350 -0.085510 0.091551 0.039755 0.284179 -0.470347 -0.298563 0.468579 -0.001843 0.095469 0.003659 0.295930 -0.077170 0.048702 -0.177967 0.097615 0.036729 -0.136786 -0.058938 0.209564 -0.010409 0.367939 0.304168 -0.276723 0.022856
botanebi 0.002353 -0.135243 0.252570 0.025037 0.340198 -0.390027 -0.311539 0.486118 0.076600 0.060799 -0.055533 0.303311 -0.012008 -0.146265 -0.232347 0.138178 -0.051274 0.017616 0.057958 0.205517 0.039447 0.475101 0.249234 -0.148015 0.091794
kohada -0.013043 -0.094857 0.089733 -0.028376 0.361593 -0.402135 -0.174561 0.595081 0.062712 0.339404 0.084877 0.301594 0.040826 -0.020364 -0.146931 -0.098695 0.085757 -0.113592 -0.022156 0.223810 0.154424 0.433307 0.285414 -0.236009 -0.064216
tarabagani -0.095348 -0.129168 0.041491 0.019053 0.319343 -0.375536 -0.215562 0.428375 -0.009166 0.061843 -0.052543 0.432245 -0.001530 0.002860 -0.249120 0.108772 -0.115614 0.071183 -0.002217 0.237512 -0.046651 0.417048 0.269542 -0.293202 -0.000241
shimaaji -0.174784 -0.120480 0.144400 0.075652 0.344462 -0.479053 -0.249638 0.553858 -0.011461 0.107379 -0.083072 0.371963 0.088845 0.106764 -0.206869 0.012673 -0.016105 -0.195912 0.045041 0.109027 0.034462 0.349375 0.124184 -0.241943 0.054994
engawa -0.077413 -0.121980 0.113270 0.021163 0.224166 -0.382222 -0.261455 0.563125 -0.001843 0.164399 -0.077236 0.344242 -0.076834 0.012803 -0.358381 -0.091220 -0.017623 -0.179342 -0.075547 0.138793 0.011261 0.225571 0.299047 -0.282465 0.125930
geso -0.027709 -0.090200 0.227826 -0.101999 0.406589 -0.330641 -0.165274 0.405468 -0.066149 0.034969 -0.070266 0.481089 -0.108309 -0.014957 -0.229744 0.168889 0.043582 -0.108472 -0.024006 0.303272 0.030211 0.427641 0.204984 -0.224198 -0.069507
shako -0.075550 -0.133095 0.193713 -0.208170 0.288330 -0.407618 -0.277779 0.383199 -0.092736 -0.022870 0.016037 0.431432 -0.205895 0.022391 -0.293767 0.072580 0.008920 -0.032683 -0.124531 0.274334 -0.025114 0.239591 0.342998 -0.267669 0.103052
torigai -0.029145 -0.210192 0.133031 -0.129915 0.388506 -0.493016 -0.136719 0.468490 -0.209372 -0.039281 -0.022535 0.280741 -0.003122 0.023842 -0.233828 -0.187304 -0.049822 -0.150008 -0.150709 0.180088 -0.179745 0.284008 0.108778 -0.537818 0.226032
kappa_maki -0.021587 -0.215316 0.189109 0.035986 0.323003 -0.393505 -0.382045 0.437357 0.090040 0.125502 0.001389 0.321375 -0.248574 -0.069338 -0.086520 0.058520 -0.023073 0.031732 0.063405 0.169531 0.038011 0.370418 0.431034 -0.179944 0.060951
nattou_maki 0.087573 -0.146489 0.124426 -0.047390 0.343195 -0.344809 -0.244636 0.373589 -0.002109 0.086764 -0.211330 0.358105 -0.153600 0.046266 -0.339103 -0.005648 -0.002778 0.008272 -0.026104 0.281639 0.031085 0.355883 0.371397 -0.209101 0.131822
kanimiso -0.142863 -0.153985 0.093174 -0.086805 0.165593 -0.375197 -0.294085 0.455303 -0.244807 -0.052580 -0.055671 0.355429 0.054132 0.149137 -0.276286 0.106569 -0.090322 -0.017832 -0.123851 0.168023 -0.037081 0.396937 0.328923 -0.274406 0.197463
mirugai -0.121747 -0.348278 0.295780 -0.400108 0.317893 -0.337645 -0.120525 0.391008 -0.462905 -0.163144 -0.252058 0.457949 0.092115 0.118467 -0.497058 -0.144965 -0.134255 -0.051968 -0.218525 0.390352 -0.027024 0.143771 0.135125 -0.322512 0.287884
iwashi -0.169647 -0.021007 0.318515 -0.006616 0.255446 -0.486846 -0.196201 0.462749 -0.000710 0.161307 0.048055 0.432039 -0.158424 -0.116603 -0.231372 0.149365 0.028908 0.002561 0.145016 0.200217 0.036009 0.455321 0.141956 -0.181797 0.017619
inari 0.000561 -0.152430 0.193230 0.047257 0.203519 -0.319804 -0.373414 0.384605 -0.035640 0.049153 -0.104706 0.374067 -0.125282 0.104819 -0.269615 0.123658 -0.117352 -0.110857 -0.063728 0.081016 0.063333 0.363890 0.416134 -0.208228 0.137559
toro_samon -0.064932 -0.204920 0.281567 0.002587 0.237805 -0.363621 -0.194228 0.526471 0.018980 0.008460 -0.056094 0.335830 -0.043328 -0.102519 -0.281846 0.072512 -0.049029 -0.029403 0.056524 0.160746 0.084722 0.371812 0.295020 -0.170165 0.104266
hokkigai -0.027332 -0.196623 0.223703 -0.168483 0.297812 -0.403676 -0.137163 0.444335 -0.121160 -0.060924 -0.079230 0.353308 -0.064012 0.015905 -0.346058 -0.047162 0.074901 -0.164802 -0.173084 0.248261 -0.051432 0.271978 0.272693 -0.283079 0.166326
negi_toro_maki -0.175299 -0.073712 0.061741 0.087503 0.370724 -0.348103 -0.282265 0.380661 -0.042168 0.056036 -0.129022 0.293373 0.072014 -0.008752 -0.358566 0.118243 -0.144119 -0.076661 -0.094804 0.179320 0.004191 0.433352 0.243830 -0.323539 0.092243
sarada -0.013480 -0.264135 0.089282 0.026613 0.229297 -0.302869 -0.327990 0.296746 0.030861 -0.043495 -0.203230 0.430761 -0.219688 0.014717 -0.245386 0.119637 -0.204089 -0.049827 0.078167 0.196538 -0.089538 0.372814 0.443722 -0.267378 0.012937
mentaiko -0.002810 -0.287823 -0.017525 0.175526 0.144033 -0.373069 -0.288650 0.469429 0.195216 0.055556 -0.150152 0.318831 -0.200215 0.068969 -0.165839 -0.011070 -0.180663 -0.091098 0.127900 0.118030 -0.007136 0.351509 0.529045 -0.273285 0.035961
tarako -0.008969 -0.310034 0.078550 0.113202 0.262683 -0.370624 -0.386642 0.432253 0.100841 0.163596 -0.054442 0.331168 -0.145758 -0.017166 -0.141728 0.017096 -0.185619 -0.004061 0.118573 0.108147 0.149873 0.449491 0.366216 -0.185986 -0.038402
suzuki -0.192566 0.009430 0.249458 -0.051073 0.393737 -0.445044 -0.091226 0.573542 0.126980 0.312557 0.023867 0.273525 -0.006822 -0.133031 -0.380584 0.016569 0.074076 -0.221550 -0.057694 0.224875 0.032389 0.304318 0.156619 -0.262397 0.041347
ume_shiso_maki 0.058093 -0.207057 0.255213 0.012797 0.278893 -0.388020 -0.242952 0.424263 0.027883 0.036203 -0.104460 0.422946 -0.127715 -0.024289 -0.224798 0.057590 -0.103310 -0.076854 -0.013580 0.109376 -0.108680 0.262791 0.405081 -0.221587 0.063621
sayori -0.212048 -0.153568 0.295355 -0.183966 0.259792 -0.383566 -0.215141 0.417883 -0.230549 -0.078613 -0.002775 0.409592 -0.085325 0.112462 -0.380176 0.021902 0.005141 -0.191294 -0.237418 0.166019 -0.047337 0.233373 0.220724 -0.338713 0.229155
sazae -0.139022 -0.091716 0.013385 0.105423 0.261152 -0.503873 -0.195133 0.574395 0.153326 0.257390 0.085107 0.252675 -0.025986 -0.041928 -0.302343 -0.008840 -0.063034 -0.119789 -0.032266 0.112009 -0.063524 0.370693 0.301244 -0.309078 0.029734
takuwan_maki -0.052075 -0.275656 -0.030434 0.139252 0.198509 -0.339840 -0.449416 0.387984 0.052460 -0.014851 -0.093233 0.299342 -0.156717 0.132744 -0.182888 -0.027013 -0.150168 -0.115722 -0.054904 -0.003740 -0.099900 0.350335 0.444499 -0.393969 0.139964
shirauo -0.015735 -0.178345 0.146286 -0.042955 0.293623 -0.424910 -0.228582 0.446684 0.002249 0.071504 -0.025725 0.327880 -0.196019 -0.033129 -0.311372 0.009212 0.008884 0.011035 0.089376 0.169664 -0.035000 0.332608 0.300829 -0.270448 0.023689
sanma -0.113587 -0.160731 0.258636 0.044095 0.399196 -0.366938 -0.233004 0.553439 -0.028127 0.173362 0.048150 0.240441 -0.001160 0.144119 -0.240771 -0.022667 0.072789 -0.169138 -0.046466 0.041966 0.043985 0.391238 0.200750 -0.214318 0.114904
kurumaebi -0.037408 -0.217161 0.160974 0.081522 0.144387 -0.338868 -0.209900 0.449975 -0.015670 0.118680 -0.092456 0.340519 -0.123454 0.172765 -0.335102 0.033984 -0.064776 -0.193560 -0.097201 0.085437 -0.000396 0.273244 0.469695 -0.270168 0.066305
nattou 0.079533 -0.217995 0.120748 0.040801 0.378561 -0.286840 -0.352727 0.375863 -0.052070 0.065151 -0.170672 0.406986 0.136895 -0.023498 -0.224825 -0.043916 -0.151142 -0.094980 -0.033330 0.062400 0.064856 0.375822 0.376219 -0.229041 0.122560
gyusashi -0.154017 -0.249447 0.153659 0.079482 0.114801 -0.459422 -0.258687 0.481444 0.028750 0.006050 -0.055502 0.470264 -0.252650 -0.098384 -0.215796 0.070343 0.014234 0.070371 0.150304 0.235381 -0.019772 0.247963 0.405978 -0.186278 0.055056
tobiko -0.068383 -0.207012 0.058545 -0.046329 0.056551 -0.252970 -0.421709 0.487887 0.091883 0.034632 0.036441 0.612786 -0.120035 0.010331 -0.163933 0.162226 -0.109248 -0.112926 -0.071410 0.175974 0.051649 0.276983 0.554180 -0.113250 0.003075
zuke -0.179607 -0.231045 0.126717 0.096821 0.191691 -0.300757 -0.311121 0.492516 0.016531 -0.042713 -0.126420 0.392298 -0.274684 0.125609 -0.249161 0.172066 0.061504 -0.199724 0.079433 0.116561 0.033982 0.331651 0.251269 -0.299685 -0.021400
mentaiko_maki -0.048576 -0.158823 0.049046 0.075657 0.102886 -0.302779 -0.345297 0.421240 -0.039513 -0.017595 -0.091203 0.449632 -0.133303 0.091229 -0.306017 0.155966 0.022252 -0.159996 -0.072325 0.122379 -0.055079 0.346094 0.457512 -0.249787 -0.002490
sarada_maki -0.231499 -0.242760 0.049421 0.135186 0.016025 -0.293062 -0.445279 0.453378 0.010079 -0.100550 -0.014149 0.413934 -0.192123 0.003969 -0.300198 0.155122 -0.113427 -0.044382 -0.041222 0.100797 -0.173718 0.256809 0.530765 -0.259761 0.058620
aoyagi 0.125041 -0.194320 0.123630 -0.190638 0.534029 -0.443538 -0.181234 0.367795 -0.109893 -0.031884 -0.113275 0.322248 -0.083578 0.031545 -0.243491 -0.076736 -0.051999 -0.189890 -0.196616 0.282332 0.006560 0.328267 0.062517 -0.445806 0.212885
komochi_konbu -0.091596 -0.267362 0.135856 -0.114358 0.218478 -0.340730 -0.269064 0.373766 -0.210608 -0.016489 -0.067906 0.460180 -0.199591 0.087790 -0.196775 0.217596 -0.120528 0.131792 0.102950 0.271295 0.082176 0.394903 0.470626 -0.204413 0.022574
fugu -0.081715 -0.122811 0.224746 -0.173503 0.434284 -0.451675 -0.059975 0.420113 -0.189747 0.081658 0.032791 0.379741 -0.000620 0.055427 -0.229617 0.008551 -0.056945 0.033214 -0.025158 0.210352 -0.000687 0.474007 0.175679 -0.266753 0.053715
basashi -0.109890 -0.217301 0.048166 0.019530 0.057470 -0.368968 -0.249185 0.555853 0.164130 0.184058 -0.064396 0.421271 -0.217757 -0.037054 -0.160155 -0.027683 0.054793 -0.111764 0.083749 0.167694 0.139697 0.272261 0.550343 -0.165116 0.060366
shiso_maki -0.030896 -0.025723 0.134642 0.068089 0.348569 -0.344839 -0.250626 0.421953 0.049156 0.098837 -0.183786 0.363915 -0.005969 -0.038487 -0.372465 0.135650 -0.033238 -0.015678 -0.041298 0.192143 -0.133074 0.379853 0.331673 -0.206913 0.170791
buri -0.030774 -0.266791 0.108567 -0.054116 0.145195 -0.455314 -0.285310 0.483744 -0.114983 0.164710 -0.011940 0.328180 -0.008611 0.186065 -0.197053 0.082774 -0.036209 -0.103715 0.049633 0.243932 0.142105 0.454415 0.315108 -0.191208 -0.155001
hamaguri -0.069956 -0.306566 0.221454 0.002525 0.272279 -0.337489 -0.247458 0.284355 -0.216673 -0.008670 -0.074003 0.342210 -0.081924 0.090765 -0.425519 -0.035789 -0.293538 0.040894 -0.060579 0.246586 0.014002 0.336083 0.282044 -0.372635 0.028893
kanpyo_maki -0.016892 -0.171408 0.052919 -0.049760 0.380755 -0.390644 -0.288948 0.287678 -0.107149 0.056827 -0.089953 0.414068 -0.102309 0.093363 -0.286018 0.048752 -0.240156 0.007355 -0.180753 0.268848 -0.084690 0.255732 0.399257 -0.299261 0.046273
ika_nattou 0.082544 -0.135714 0.019896 0.037387 0.385128 -0.390408 -0.310271 0.442492 0.094147 0.171282 -0.094440 0.352014 0.033362 -0.025903 -0.211594 -0.060310 -0.159269 -0.067467 0.009626 0.111683 0.058684 0.404032 0.326303 -0.303476 0.067486
nasu -0.085963 -0.246856 0.081228 0.063452 0.201077 -0.404627 -0.289386 0.432095 -0.004283 0.057493 -0.009598 0.475312 -0.112327 0.072499 -0.173890 -0.075090 -0.064894 -0.063615 0.048258 0.041464 -0.019633 0.388587 0.268054 -0.344032 0.099495
ume_maki 0.036057 -0.218404 0.128720 0.104890 0.241133 -0.427860 -0.282128 0.412254 0.090477 0.046328 -0.106488 0.333300 -0.143440 -0.004660 -0.169715 0.007849 -0.122647 -0.007386 0.014466 0.132359 -0.032793 0.350557 0.384910 -0.306355 0.060581
ankimo -0.052688 -0.296939 0.288338 -0.009542 0.347371 -0.437059 -0.185705 0.419015 -0.188395 0.115170 -0.096741 0.246924 0.028762 0.024230 -0.335761 -0.079048 -0.142082 -0.009819 -0.017692 0.117331 0.041868 0.341354 0.243676 -0.275561 0.064971
hamo -0.043150 -0.164276 0.044438 -0.003559 0.235696 -0.383019 -0.259241 0.496969 0.012412 0.089375 -0.035641 0.355089 -0.006486 0.028175 -0.246557 -0.073956 -0.053252 -0.009499 -0.091823 0.093565 -0.055465 0.324626 0.360851 -0.359759 0.179447
ana_kyu_maki 0.081104 -0.149486 0.163719 -0.168567 0.342510 -0.427891 -0.291478 0.395478 -0.005315 0.137883 -0.019319 0.405017 -0.077450 0.060101 -0.172754 -0.006430 -0.029185 -0.095455 0.005147 0.188992 0.008533 0.386063 0.273872 -0.200595 0.010559
ishigakidai -0.075574 -0.248410 0.331222 -0.026822 0.256807 -0.350144 -0.238425 0.392368 -0.122298 -0.045538 -0.164332 0.431138 -0.155770 0.005660 -0.316265 0.100851 -0.040703 -0.053840 0.024167 0.107905 0.101054 0.274247 0.305645 -0.170969 0.076609
tsubugai -0.169978 -0.208261 0.164260 -0.166554 0.245460 -0.250949 -0.238495 0.451540 -0.139039 0.013538 -0.013842 0.401430 0.027349 0.056031 -0.257537 0.065035 -0.116872 -0.105161 -0.123527 0.206301 -0.048976 0.351985 0.339398 -0.258915 0.066783
okura -0.147572 -0.198287 0.038979 0.023873 0.157725 -0.395300 -0.316294 0.446855 0.029054 0.050241 -0.007361 0.358414 -0.136300 0.010541 -0.193946 0.064485 -0.069734 -0.094956 -0.023116 0.177467 -0.026332 0.348458 0.408177 -0.289722 0.001587
hiragai 0.043698 -0.099627 0.065123 -0.083999 0.420750 -0.423837 -0.173194 0.481652 -0.013975 0.129786 -0.076157 0.327180 0.093905 -0.040953 -0.299572 -0.079034 -0.051002 -0.234651 -0.229224 0.170361 -0.037617 0.304395 0.231268 -0.376917 0.147061
karei -0.035991 -0.168141 0.057843 0.074955 0.334329 -0.472657 -0.231771 0.433467 0.015037 0.167796 0.016579 0.301024 -0.163806 -0.035885 -0.212956 -0.010605 -0.031995 -0.121804 -0.095388 0.175091 -0.006100 0.303827 0.303519 -0.414796 0.092792
kaiware -0.050248 -0.210092 0.080714 -0.100547 0.277953 -0.339341 -0.263893 0.392754 -0.126369 0.028175 -0.001299 0.462956 -0.072332 0.056624 -0.163797 -0.031430 -0.100973 -0.033719 -0.076192 0.185065 0.026660 0.447850 0.260232 -0.348224 0.037106
hiramasa -0.077593 -0.153023 0.136010 -0.123308 0.244386 -0.333272 -0.233398 0.447044 -0.152700 0.019259 -0.002361 0.453510 -0.039044 0.015404 -0.183151 0.034718 0.002631 -0.097152 -0.093157 0.179986 0.033414 0.404808 0.202138 -0.286177 0.131738
battera -0.142189 -0.113843 0.187342 0.031950 0.426629 -0.408142 -0.207168 0.474593 -0.019557 0.079843 -0.016536 0.354734 -0.026921 -0.052084 -0.250959 -0.018453 -0.049316 -0.088998 -0.069688 0.199546 0.030679 0.319792 0.240363 -0.315561 0.066044
himo -0.088696 -0.162878 0.183198 0.026921 0.376464 -0.471276 -0.196331 0.526914 0.061675 0.130173 -0.034042 0.276345 -0.060727 -0.009138 -0.194421 -0.011847 0.024082 -0.083054 -0.009723 0.189503 0.053960 0.398172 0.249976 -0.227901 0.058593
sawara -0.020867 -0.181286 0.182600 0.058554 0.237430 -0.458145 -0.203105 0.461963 -0.021195 0.155119 -0.031296 0.290784 -0.144809 0.025069 -0.229647 -0.013853 0.025752 -0.070900 -0.004511 0.150751 0.071269 0.372093 0.355526 -0.262829 -0.001764
kaki -0.079517 -0.223573 0.156295 -0.014803 0.325103 -0.368314 -0.257491 0.450039 -0.005778 0.019617 -0.124372 0.391232 -0.055361 0.001969 -0.263124 0.002853 -0.053821 -0.095863 -0.024978 0.187089 -0.011494 0.370832 0.279465 -0.260232 0.074380
kujira -0.032627 -0.209794 0.113608 -0.011595 0.282931 -0.332013 -0.287701 0.399650 -0.048350 0.040346 -0.064727 0.313915 0.026811 0.032255 -0.291498 0.031970 -0.109550 -0.033332 -0.082929 0.135844 -0.027714 0.345082 0.323917 -0.315036 0.085848
mekabu -0.107987 -0.233310 0.130159 0.011837 0.304278 -0.348387 -0.303475 0.429346 -0.036826 0.058714 -0.030768 0.409226 -0.033015 0.001050 -0.239376 0.015617 -0.115853 0.002225 -0.061607 0.163007 -0.048651 0.360250 0.342414 -0.292265 0.086094
kamo -0.118644 -0.161745 0.193241 0.009808 0.273983 -0.381263 -0.264310 0.453437 -0.025263 0.046472 -0.067381 0.360704 -0.128710 -0.006771 -0.247430 0.083788 -0.020345 -0.063692 0.055707 0.164474 0.015352 0.340425 0.300272 -0.257244 0.088828
hoya -0.039756 -0.202289 0.133069 -0.033212 0.245420 -0.376964 -0.256327 0.422781 -0.134581 0.034744 -0.095728 0.384171 -0.025456 0.046265 -0.290945 0.020287 -0.154699 -0.023624 -0.044428 0.192405 0.062951 0.356417 0.286377 -0.305733 0.082031
tobiuo -0.058476 -0.207140 0.218798 -0.039727 0.336774 -0.450579 -0.207496 0.445385 -0.098028 0.028139 -0.061069 0.334453 -0.091530 0.073982 -0.315734 0.018257 -0.044006 0.006685 -0.009049 0.159115 -0.011148 0.330188 0.363642 -0.305633 0.075067
kyabia -0.068073 -0.168575 0.179745 0.000834 0.270165 -0.438960 -0.256078 0.470253 -0.055115 0.056048 -0.088374 0.375366 -0.097603 0.096428 -0.283186 0.069394 -0.090335 -0.066227 0.010447 0.178343 0.026352 0.353773 0.306035 -0.240955 0.126055
shishamo -0.052150 -0.164373 0.196426 -0.110987 0.317435 -0.334711 -0.246358 0.446183 -0.101648 0.014876 -0.028789 0.399443 -0.044008 0.048152 -0.276258 0.057794 -0.005971 -0.126886 -0.093914 0.178779 -0.023522 0.343896 0.222919 -0.277383 0.067604
karasumi -0.064526 -0.213603 0.097997 -0.045248 0.248581 -0.355718 -0.274534 0.459307 -0.085273 0.051477 -0.073458 0.380776 0.012337 0.050963 -0.289237 0.053416 -0.103153 -0.048218 -0.041579 0.225133 -0.013595 0.380784 0.340604 -0.254614 0.070976
sasami -0.066829 -0.213487 0.147804 -0.082351 0.237101 -0.401258 -0.254656 0.515766 -0.075466 0.116307 -0.034461 0.424793 -0.065428 0.091208 -0.239386 0.042137 -0.054859 -0.104552 -0.094500 0.122064 0.020087 0.328194 0.402358 -0.283223 0.044942
mamakari -0.084335 -0.251262 0.152409 0.021655 0.216131 -0.389139 -0.260934 0.435342 -0.048953 0.063488 -0.033286 0.379651 -0.064098 0.022530 -0.298813 0.024347 -0.099078 -0.075430 -0.048266 0.207668 0.028582 0.332884 0.363320 -0.295629 0.032235
uni_kurage -0.082199 -0.136403 0.098760 0.019111 0.300384 -0.392858 -0.293473 0.479676 0.027549 0.099621 0.003557 0.333176 -0.048900 0.029266 -0.265718 -0.014766 -0.046292 -0.151122 -0.098921 0.152689 -0.021950 0.329785 0.267654 -0.328744 0.099361
kue -0.088870 -0.148325 0.158988 0.014535 0.244998 -0.378882 -0.231351 0.480146 -0.008787 0.100489 -0.046659 0.379277 -0.065646 0.015388 -0.228201 0.078907 -0.015104 -0.075959 -0.002829 0.176574 0.008439 0.365915 0.287474 -0.225669 0.056438
namako -0.084201 -0.224056 0.124262 -0.047044 0.254549 -0.358270 -0.262520 0.464832 -0.033293 0.055327 -0.041902 0.373841 -0.080452 0.019196 -0.259939 0.018823 -0.063092 -0.061788 -0.038576 0.194261 -0.000187 0.379538 0.329844 -0.292302 0.068587
himo_kyu_maki -0.039349 -0.182667 0.090427 -0.022145 0.299062 -0.377429 -0.261380 0.429666 -0.021966 0.055734 -0.067912 0.340568 -0.093195 0.048051 -0.224782 0.058645 -0.048608 -0.037463 -0.011478 0.193749 -0.000134 0.366829 0.336915 -0.296983 0.085081
